Language model created by QuickLM on Sat Sep 29 09:02:31 EDT 2018
Copyright (c) 1996-2010 Carnegie Mellon University and Alexander I. Rudnicky

The model is in standard ARPA format, designed by Doug Paul while he was at MITRE.

The code that was used to produce this language model is available in Open Source.
Please visit http://www.speech.cs.cmu.edu/tools/ for more information

The (fixed) discount mass is 0.5. The backoffs are computed using the ratio method.
This model based on a corpus of 101 sentences and 138 words

\data\
ngram 1=138
ngram 2=249
ngram 3=174

\1-grams:
-2.8820 1AAK4AR -0.2999
-2.8820 2HO4E -0.2393
-2.8820 4AIKSII -0.2982
-2.8820 4HEEK -0.3005
-2.8820 4UU4AA -0.2393
-0.8776 </s> -0.3010
-0.8776 <s> -0.2353
-2.8820 AA79 -0.2393
-2.8820 AADAMII -0.2393
-2.8820 AADI -0.2393
-2.8820 AAE79GE -0.2393
-2.8820 AAIIYE -0.2393
-2.8820 AALUU -0.2393
-2.8820 AAM -0.2393
-2.2799 AAP -0.2936
-2.8820 AAPAKA -0.3005
-2.8820 AAPAKAA -0.3005
-2.8820 AAPAKII -0.2999
-2.8820 AAPAKO -0.3005
-2.8820 AAPASE -0.3005
-2.8820 AARAAM -0.2393
-2.8820 AASAMAAN -0.2393
-2.8820 AAYAA -0.2393
-2.4048 ACH2HAA -0.2912
-2.8820 ADHIK -0.2393
-2.8820 ATHAVAA -0.2393
-2.8820 BA1DE -0.2393
-2.8820 BAAL -0.2393
-2.8820 BAARIISH -0.2393
-2.8820 BAI4HANAA -0.2393
-2.8820 BAJE -0.2930
-2.8820 BE4AA -0.2393
-2.8820 BE4II -0.2393
-2.8820 BHAA3HAA -0.2393
-2.8820 BHARAT -0.2393
-2.8820 BHUKH -0.3005
-2.8820 BIICH -0.2393
-2.8820 BIJALII -0.2393
-2.8820 BOLANAA -0.2393
-2.8820 BURAA -0.2393
-2.8820 CHAHIE -0.2393
-2.8820 CHALANAA -0.2393
-2.8820 DEKHANAA -0.2393
-2.8820 DENAA -0.2393
-2.8820 DESH -0.2393
-2.8820 DHANYAVAAD -0.2393
-2.8820 DIN -0.2393
-2.8820 DOPAHAR -0.2393
-2.8820 DUKAAN -0.2982
-2.8820 DUUSARE -0.2393
-2.8820 GARAM -0.2393
-2.8820 GAYE -0.2930
-2.8820 GEHUU -0.2393
-2.8820 GHAR -0.2393
-1.7358 HAI -0.2393
-2.4048 HAM -0.2993
-2.8820 HAME -0.3005
-2.5809 HO -0.2393
-2.8820 HO4AL -0.2982
-2.8820 HOGAA -0.2393
-2.8820 HU79 -0.2393
-2.8820 HUII -0.2393
-2.8820 ISAKE -0.2393
-2.8820 ISALIE -0.2393
-2.8820 JAANAA -0.3005
-2.8820 JIIBH -0.2393
-2.8820 KAALAA -0.2393
-2.8820 KAAN -0.2393
-2.1830 KAHAA -0.2912
-2.8820 KAISE -0.2930
-2.4048 KAR -0.2993
-2.8820 KARIIB -0.2393
-2.8820 KHAANE -0.2999
-2.8820 KHARAAB -0.2393
-2.8820 KHO -0.3005
-2.8820 KHUSHEE -0.3005
-2.8820 KIDHAR -0.2393
-2.5809 KII -0.2999
-2.8820 KIIJIE -0.2393
-2.8820 KITANE -0.3005
-2.1038 KYAA -0.2865
-2.8820 LA1AJII -0.2393
-2.8820 LA1AKAA -0.2393
-2.8820 LAGANAA -0.2393
-2.8820 LAGATAA -0.2930
-2.8820 LAU4 -0.3005
-2.8820 LOG -0.2393
-2.8820 MAAF -0.3005
-2.5809 MADAD -0.2993
-2.8820 MAI -0.3005
-2.8820 ME -0.2999
-2.8820 MERE -0.3005
-2.8820 MERII -0.2999
-2.8820 MILAKAR -0.3005
-2.5809 MILEGAA -0.2393
-2.4048 MUJHE -0.2970
-2.8820 NAAK -0.2393
-2.8820 NAAKHUUN -0.2393
-2.8820 NAAM -0.2976
-2.8820 NADII -0.2393
-2.5809 NAHII -0.2924
-2.8820 NAMAK -0.2393
-2.8820 NAMASKAAR -0.2393
-2.8820 NAYAA -0.2393
-2.8820 PAANII -0.2393
-2.8820 PATAA -0.2982
-2.8820 PE1 -0.2393
-2.8820 PHAL -0.2393
-2.8820 PRAKAAR -0.2393
-2.8820 PURAANAA -0.2393
-2.8820 RAASTAA -0.2393
-2.8820 RAAT -0.2393
-2.8820 RAHE -0.2999
-2.8820 S8KHYAA -0.2393
-2.8820 SABHII -0.2393
-2.5809 SAKATE -0.2918
-2.8820 SAMAJH -0.3005
-2.8820 SAMAY -0.2393
-2.8820 SAR -0.2393
-2.8820 SATH -0.3005
-2.8820 SE -0.2930
-2.8820 SHAAM -0.2393
-2.8820 SHUKRIIYAA -0.2393
-2.8820 SONAA -0.2393
-2.8820 SUBAH -0.2393
-2.8820 SUURAJ -0.2393
-2.8820 SVAAGAT -0.2930
-2.8820 TAARAA -0.2393
-2.8820 TEL -0.2393
-2.8820 TURANT -0.3005
-2.8820 UNAKE -0.2393
-2.8820 UPAYOG -0.2393
-2.8820 VIKAAS -0.2393
-2.8820 VISHE3H -0.2393
-2.8820 YADI -0.2393
-2.1830 YAH -0.2947
-2.8820 YAHAA79 -0.2993
-2.8820 ZARUURAT -0.2930

\2-grams:
-0.3010 1AAK4AR KII -0.1761
-0.3010 2HO4E </s> -0.3010
-0.3010 4AIKSII KAHAA -0.2041
-0.3010 4HEEK HU79 0.0000
-0.3010 4UU4AA </s> -0.3010
-2.3054 <s> 2HO4E 0.0000
-2.3054 <s> 4AIKSII 0.0000
-2.3054 <s> 4UU4AA 0.0000
-2.3054 <s> AA79 0.0000
-2.3054 <s> AADAMII 0.0000
-2.3054 <s> AADI 0.0000
-2.3054 <s> AALUU 0.0000
-2.3054 <s> AAM 0.0000
-1.8282 <s> AAP -0.0969
-2.3054 <s> AAPAKA 0.0000
-2.3054 <s> AAPAKAA 0.0000
-2.3054 <s> AAPASE 0.0000
-2.3054 <s> AARAAM 0.0000
-2.3054 <s> AASAMAAN 0.0000
-2.3054 <s> ADHIK 0.0000
-2.3054 <s> ATHAVAA 0.0000
-2.3054 <s> BA1DE 0.0000
-2.3054 <s> BAAL 0.0000
-2.3054 <s> BAARIISH 0.0000
-2.3054 <s> BAI4HANAA 0.0000
-2.3054 <s> BE4AA 0.0000
-2.3054 <s> BE4II 0.0000
-2.3054 <s> BHAA3HAA 0.0000
-2.3054 <s> BHARAT 0.0000
-2.3054 <s> BHUKH 0.0000
-2.3054 <s> BIICH 0.0000
-2.3054 <s> BIJALII 0.0000
-2.3054 <s> BOLANAA 0.0000
-2.3054 <s> BURAA 0.0000
-2.3054 <s> CHALANAA 0.0000
-2.3054 <s> DEKHANAA 0.0000
-2.3054 <s> DENAA 0.0000
-2.3054 <s> DESH 0.0000
-2.3054 <s> DHANYAVAAD 0.0000
-2.3054 <s> DIN 0.0000
-2.3054 <s> DOPAHAR 0.0000
-2.3054 <s> DUUSARE 0.0000
-2.3054 <s> GARAM 0.0000
-2.3054 <s> GEHUU 0.0000
-2.3054 <s> GHAR 0.0000
-2.0043 <s> HAM -0.1249
-2.3054 <s> HAME 0.0000
-2.3054 <s> HO4AL 0.0000
-2.3054 <s> ISAKE 0.0000
-2.3054 <s> ISALIE 0.0000
-2.3054 <s> JIIBH 0.0000
-2.3054 <s> KAALAA 0.0000
-2.3054 <s> KAAN 0.0000
-2.3054 <s> KARIIB 0.0000
-2.3054 <s> KHAANE 0.0000
-2.3054 <s> KHARAAB 0.0000
-2.3054 <s> KIDHAR 0.0000
-2.3054 <s> KITANE 0.0000
-1.8282 <s> KYAA -0.1761
-2.3054 <s> LA1AJII 0.0000
-2.3054 <s> LA1AKAA 0.0000
-2.3054 <s> LOG 0.0000
-2.3054 <s> MAAF 0.0000
-2.3054 <s> MAI 0.0000
-2.3054 <s> MERE 0.0000
-1.8282 <s> MUJHE 0.0000
-2.3054 <s> NAAK 0.0000
-2.3054 <s> NAAKHUUN 0.0000
-2.3054 <s> NADII 0.0000
-2.3054 <s> NAMAK 0.0000
-2.3054 <s> NAMASKAAR 0.0000
-2.3054 <s> NAYAA 0.0000
-2.3054 <s> PAANII 0.0000
-2.3054 <s> PE1 0.0000
-2.3054 <s> PHAL 0.0000
-2.3054 <s> PRAKAAR 0.0000
-2.3054 <s> PURAANAA 0.0000
-2.3054 <s> RAASTAA 0.0000
-2.3054 <s> RAAT 0.0000
-2.3054 <s> S8KHYAA 0.0000
-2.3054 <s> SABHII 0.0000
-2.3054 <s> SAMAY 0.0000
-2.3054 <s> SAR 0.0000
-2.3054 <s> SHAAM 0.0000
-2.3054 <s> SHUKRIIYAA 0.0000
-2.3054 <s> SONAA 0.0000
-2.3054 <s> SUBAH 0.0000
-2.3054 <s> SUURAJ 0.0000
-2.3054 <s> TAARAA 0.0000
-2.3054 <s> TEL 0.0000
-2.3054 <s> UNAKE 0.0000
-2.3054 <s> UPAYOG 0.0000
-2.3054 <s> VIKAAS 0.0000
-2.3054 <s> VISHE3H 0.0000
-2.3054 <s> YADI 0.0000
-1.7033 <s> YAH -0.0792
-0.3010 AA79 </s> -0.3010
-0.3010 AADAMII </s> -0.3010
-0.3010 AADI </s> -0.3010
-0.3010 AAE79GE </s> -0.3010
-0.3010 AAIIYE </s> -0.3010
-0.3010 AALUU </s> -0.3010
-0.3010 AAM </s> -0.3010
-0.9031 AAP KAHAA -0.2553
-0.9031 AAP KAISE 0.0000
-0.9031 AAP KYAA -0.2632
-0.9031 AAP MERII 0.0000
-0.3010 AAPAKA SVAAGAT 0.0000
-0.3010 AAPAKAA NAAM 0.0000
-0.3010 AAPAKII MADAD 0.0000
-0.3010 AAPAKO YAHAA79 0.0000
-0.3010 AAPASE MILAKAR 0.0000
-0.3010 AARAAM </s> -0.3010
-0.3010 AASAMAAN </s> -0.3010
-0.3010 AAYAA </s> -0.3010
-0.7782 ACH2HAA HAI 0.0000
-0.7782 ACH2HAA LAGATAA 0.0000
-0.7782 ACH2HAA NAHII -0.1761
-0.3010 ADHIK </s> -0.3010
-0.3010 ATHAVAA </s> -0.3010
-0.3010 BA1DE </s> -0.3010
-0.3010 BAAL </s> -0.3010
-0.3010 BAARIISH </s> -0.3010
-0.3010 BAI4HANAA </s> -0.3010
-0.3010 BAJE HAI 0.0000
-0.3010 BE4AA </s> -0.3010
-0.3010 BE4II </s> -0.3010
-0.3010 BHAA3HAA </s> -0.3010
-0.3010 BHARAT </s> -0.3010
-0.3010 BHUKH LAGANAA 0.0000
-0.3010 BIICH </s> -0.3010
-0.3010 BIJALII </s> -0.3010
-0.3010 BOLANAA </s> -0.3010
-0.3010 BURAA </s> -0.3010
-0.3010 CHAHIE </s> -0.3010
-0.3010 CHALANAA </s> -0.3010
-0.3010 DEKHANAA </s> -0.3010
-0.3010 DENAA </s> -0.3010
-0.3010 DESH </s> -0.3010
-0.3010 DHANYAVAAD </s> -0.3010
-0.3010 DIN </s> -0.3010
-0.3010 DOPAHAR </s> -0.3010
-0.3010 DUKAAN KAHAA -0.2041
-0.3010 DUUSARE </s> -0.3010
-0.3010 GARAM </s> -0.3010
-0.3010 GAYE HAI 0.0000
-0.3010 GEHUU </s> -0.3010
-0.3010 GHAR </s> -0.3010
-0.3010 HAI </s> -0.3010
-0.7782 HAM AAPAKII 0.0000
-0.7782 HAM KHO 0.0000
-0.7782 HAM TURANT 0.0000
-0.3010 HAME 1AAK4AR 0.0000
-0.3010 HO </s> -0.3010
-0.3010 HO4AL KAHAA -0.2041
-0.3010 HOGAA </s> -0.3010
-0.3010 HU79 </s> -0.3010
-0.3010 HUII </s> -0.3010
-0.3010 ISAKE </s> -0.3010
-0.3010 ISALIE </s> -0.3010
-0.3010 JAANAA HOGAA 0.0000
-0.3010 JIIBH </s> -0.3010
-0.3010 KAALAA </s> -0.3010
-0.3010 KAAN </s> -0.3010
-0.6990 KAHAA HAI 0.0000
-0.6990 KAHAA MILEGAA 0.0000
-1.0000 KAHAA SE 0.0000
-0.3010 KAISE HAI 0.0000
-0.7782 KAR RAHE 0.0000
-0.4771 KAR SAKATE 0.0000
-0.3010 KARIIB </s> -0.3010
-0.3010 KHAANE KII -0.1761
-0.3010 KHARAAB </s> -0.3010
-0.3010 KHO GAYE 0.0000
-0.3010 KHUSHEE HUII 0.0000
-0.3010 KIDHAR </s> -0.3010
-0.6021 KII DUKAAN 0.0000
-0.6021 KII ZARUURAT 0.0000
-0.3010 KIIJIE </s> -0.3010
-0.3010 KITANE BAJE 0.0000
-1.0792 KYAA AAP -0.2430
-1.0792 KYAA AAPAKO 0.0000
-0.7782 KYAA HAI 0.0000
-1.0792 KYAA HAM -0.2218
-1.0792 KYAA KAR -0.2218
-0.3010 LA1AJII </s> -0.3010
-0.3010 LA1AKAA </s> -0.3010
-0.3010 LAGANAA </s> -0.3010
-0.3010 LAGATAA HAI 0.0000
-0.3010 LAU4 AAE79GE 0.0000
-0.3010 LOG </s> -0.3010
-0.3010 MAAF KIIJIE 0.0000
-0.3010 MADAD KAR -0.1249
-0.3010 MAI 4HEEK 0.0000
-0.3010 ME NAHII -0.1761
-0.3010 MERE SATH 0.0000
-0.3010 MERII MADAD 0.0000
-0.3010 MILAKAR KHUSHEE 0.0000
-0.3010 MILEGAA </s> -0.3010
-0.7782 MUJHE JAANAA 0.0000
-0.7782 MUJHE SAMAJH 0.0000
-0.7782 MUJHE YAH -0.2553
-0.3010 NAAK </s> -0.3010
-0.3010 NAAKHUUN </s> -0.3010
-0.3010 NAAM KYAA -0.2218
-0.3010 NADII </s> -0.3010
-0.6021 NAHII AAYAA 0.0000
-0.6021 NAHII HAI 0.0000
-0.3010 NAMAK </s> -0.3010
-0.3010 NAMASKAAR </s> -0.3010
-0.3010 NAYAA </s> -0.3010
-0.3010 PAANII </s> -0.3010
-0.3010 PATAA KAHAA -0.2041
-0.3010 PE1 </s> -0.3010
-0.3010 PHAL </s> -0.3010
-0.3010 PRAKAAR </s> -0.3010
-0.3010 PURAANAA </s> -0.3010
-0.3010 RAASTAA </s> -0.3010
-0.3010 RAAT </s> -0.3010
-0.3010 RAHE HO 0.0000
-0.3010 S8KHYAA </s> -0.3010
-0.3010 SABHII </s> -0.3010
-0.6021 SAKATE HAI 0.0000
-0.6021 SAKATE HO 0.0000
-0.3010 SAMAJH ME 0.0000
-0.3010 SAMAY </s> -0.3010
-0.3010 SAR </s> -0.3010
-0.3010 SATH AAIIYE 0.0000
-0.3010 SE HAI 0.0000
-0.3010 SHAAM </s> -0.3010
-0.3010 SHUKRIIYAA </s> -0.3010
-0.3010 SONAA </s> -0.3010
-0.3010 SUBAH </s> -0.3010
-0.3010 SUURAJ </s> -0.3010
-0.3010 SVAAGAT HAI 0.0000
-0.3010 TAARAA </s> -0.3010
-0.3010 TEL </s> -0.3010
-0.3010 TURANT LAU4 0.0000
-0.3010 UNAKE </s> -0.3010
-0.3010 UPAYOG </s> -0.3010
-0.3010 VIKAAS </s> -0.3010
-0.3010 VISHE3H </s> -0.3010
-0.3010 YADI </s> -0.3010
-0.6990 YAH ACH2HAA -0.1249
-1.0000 YAH CHAHIE 0.0000
-1.0000 YAH KYAA -0.2218
-1.0000 YAH PATAA 0.0000
-0.3010 YAHAA79 ACH2HAA -0.2218
-0.3010 ZARUURAT HAI 0.0000

\3-grams:
-0.3010 1AAK4AR KII ZARUURAT
-0.3010 4AIKSII KAHAA MILEGAA
-0.3010 4HEEK HU79 </s>
-0.3010 <s> 2HO4E </s>
-0.3010 <s> 4AIKSII KAHAA
-0.3010 <s> 4UU4AA </s>
-0.3010 <s> AA79 </s>
-0.3010 <s> AADAMII </s>
-0.3010 <s> AADI </s>
-0.3010 <s> AALUU </s>
-0.3010 <s> AAM </s>
-0.7782 <s> AAP KAHAA
-0.7782 <s> AAP KAISE
-0.7782 <s> AAP KYAA
-0.3010 <s> AAPAKA SVAAGAT
-0.3010 <s> AAPAKAA NAAM
-0.3010 <s> AAPASE MILAKAR
-0.3010 <s> AARAAM </s>
-0.3010 <s> AASAMAAN </s>
-0.3010 <s> ADHIK </s>
-0.3010 <s> ATHAVAA </s>
-0.3010 <s> BA1DE </s>
-0.3010 <s> BAAL </s>
-0.3010 <s> BAARIISH </s>
-0.3010 <s> BAI4HANAA </s>
-0.3010 <s> BE4AA </s>
-0.3010 <s> BE4II </s>
-0.3010 <s> BHAA3HAA </s>
-0.3010 <s> BHARAT </s>
-0.3010 <s> BHUKH LAGANAA
-0.3010 <s> BIICH </s>
-0.3010 <s> BIJALII </s>
-0.3010 <s> BOLANAA </s>
-0.3010 <s> BURAA </s>
-0.3010 <s> CHALANAA </s>
-0.3010 <s> DEKHANAA </s>
-0.3010 <s> DENAA </s>
-0.3010 <s> DESH </s>
-0.3010 <s> DHANYAVAAD </s>
-0.3010 <s> DIN </s>
-0.3010 <s> DOPAHAR </s>
-0.3010 <s> DUUSARE </s>
-0.3010 <s> GARAM </s>
-0.3010 <s> GEHUU </s>
-0.3010 <s> GHAR </s>
-0.6021 <s> HAM KHO
-0.6021 <s> HAM TURANT
-0.3010 <s> HAME 1AAK4AR
-0.3010 <s> HO4AL KAHAA
-0.3010 <s> ISAKE </s>
-0.3010 <s> ISALIE </s>
-0.3010 <s> JIIBH </s>
-0.3010 <s> KAALAA </s>
-0.3010 <s> KAAN </s>
-0.3010 <s> KARIIB </s>
-0.3010 <s> KHAANE KII
-0.3010 <s> KHARAAB </s>
-0.3010 <s> KIDHAR </s>
-0.3010 <s> KITANE BAJE
-0.7782 <s> KYAA AAP
-0.7782 <s> KYAA AAPAKO
-0.7782 <s> KYAA HAM
-0.3010 <s> LA1AJII </s>
-0.3010 <s> LA1AKAA </s>
-0.3010 <s> LOG </s>
-0.3010 <s> MAAF KIIJIE
-0.3010 <s> MAI 4HEEK
-0.3010 <s> MERE SATH
-0.7782 <s> MUJHE JAANAA
-0.7782 <s> MUJHE SAMAJH
-0.7782 <s> MUJHE YAH
-0.3010 <s> NAAK </s>
-0.3010 <s> NAAKHUUN </s>
-0.3010 <s> NADII </s>
-0.3010 <s> NAMAK </s>
-0.3010 <s> NAMASKAAR </s>
-0.3010 <s> NAYAA </s>
-0.3010 <s> PAANII </s>
-0.3010 <s> PE1 </s>
-0.3010 <s> PHAL </s>
-0.3010 <s> PRAKAAR </s>
-0.3010 <s> PURAANAA </s>
-0.3010 <s> RAASTAA </s>
-0.3010 <s> RAAT </s>
-0.3010 <s> S8KHYAA </s>
-0.3010 <s> SABHII </s>
-0.3010 <s> SAMAY </s>
-0.3010 <s> SAR </s>
-0.3010 <s> SHAAM </s>
-0.3010 <s> SHUKRIIYAA </s>
-0.3010 <s> SONAA </s>
-0.3010 <s> SUBAH </s>
-0.3010 <s> SUURAJ </s>
-0.3010 <s> TAARAA </s>
-0.3010 <s> TEL </s>
-0.3010 <s> UNAKE </s>
-0.3010 <s> UPAYOG </s>
-0.3010 <s> VIKAAS </s>
-0.3010 <s> VISHE3H </s>
-0.3010 <s> YADI </s>
-0.6021 <s> YAH ACH2HAA
-0.9031 <s> YAH KYAA
-0.9031 <s> YAH PATAA
-0.3010 AAP KAHAA SE
-0.3010 AAP KAISE HAI
-0.3010 AAP KYAA KAR
-0.3010 AAP MERII MADAD
-0.3010 AAPAKA SVAAGAT HAI
-0.3010 AAPAKAA NAAM KYAA
-0.3010 AAPAKII MADAD KAR
-0.3010 AAPAKO YAHAA79 ACH2HAA
-0.3010 AAPASE MILAKAR KHUSHEE
-0.3010 ACH2HAA HAI </s>
-0.3010 ACH2HAA LAGATAA HAI
-0.3010 ACH2HAA NAHII HAI
-0.3010 BAJE HAI </s>
-0.3010 BHUKH LAGANAA </s>
-0.3010 DUKAAN KAHAA HAI
-0.3010 GAYE HAI </s>
-0.3010 HAM AAPAKII MADAD
-0.3010 HAM KHO GAYE
-0.3010 HAM TURANT LAU4
-0.3010 HAME 1AAK4AR KII
-0.3010 HO4AL KAHAA HAI
-0.3010 JAANAA HOGAA </s>
-0.3010 KAHAA HAI </s>
-0.3010 KAHAA MILEGAA </s>
-0.3010 KAHAA SE HAI
-0.3010 KAISE HAI </s>
-0.3010 KAR RAHE HO
-0.6021 KAR SAKATE HAI
-0.6021 KAR SAKATE HO
-0.3010 KHAANE KII DUKAAN
-0.3010 KHO GAYE HAI
-0.3010 KHUSHEE HUII </s>
-0.3010 KII DUKAAN KAHAA
-0.3010 KII ZARUURAT HAI
-0.3010 KITANE BAJE HAI
-0.3010 KYAA AAP MERII
-0.3010 KYAA AAPAKO YAHAA79
-0.3010 KYAA HAI </s>
-0.3010 KYAA HAM AAPAKII
-0.3010 KYAA KAR RAHE
-0.3010 LAGATAA HAI </s>
-0.3010 LAU4 AAE79GE </s>
-0.3010 MAAF KIIJIE </s>
-0.3010 MADAD KAR SAKATE
-0.3010 MAI 4HEEK HU79
-0.3010 ME NAHII AAYAA
-0.3010 MERE SATH AAIIYE
-0.3010 MERII MADAD KAR
-0.3010 MILAKAR KHUSHEE HUII
-0.3010 MUJHE JAANAA HOGAA
-0.3010 MUJHE SAMAJH ME
-0.3010 MUJHE YAH CHAHIE
-0.3010 NAAM KYAA HAI
-0.3010 NAHII AAYAA </s>
-0.3010 NAHII HAI </s>
-0.3010 PATAA KAHAA MILEGAA
-0.3010 RAHE HO </s>
-0.3010 SAKATE HAI </s>
-0.3010 SAKATE HO </s>
-0.3010 SAMAJH ME NAHII
-0.3010 SATH AAIIYE </s>
-0.3010 SE HAI </s>
-0.3010 SVAAGAT HAI </s>
-0.3010 TURANT LAU4 AAE79GE
-0.6021 YAH ACH2HAA HAI
-0.6021 YAH ACH2HAA NAHII
-0.3010 YAH CHAHIE </s>
-0.3010 YAH KYAA HAI
-0.3010 YAH PATAA KAHAA
-0.3010 YAHAA79 ACH2HAA LAGATAA
-0.3010 ZARUURAT HAI </s>

\end\
